<?xml version="1.0" encoding="UTF-8"?>
<!-- This file was created by ACADEMIC version of SMILE -->
<smile version="1.0" id="Network1" numsamples="10000" discsamples="10000">
	<nodes>
		<deterministic id="D3">
			<state id="OL" />
			<state id="OR" />
			<state id="L" />
			<resultingstates>L</resultingstates>
		</deterministic>
		<cpt id="O2">
			<state id="GLCL" />
			<state id="GLCR" />
			<state id="GLS" />
			<state id="GRCL" />
			<state id="GRCR" />
			<state id="GRS" />
			<parents>D3</parents>
			<probabilities>0.1666666666666667 0.1666666666666667 0.1666666666666667 0.1666666666666667 0.1666666666666667 0.1666666666666667 0.1666666666666667 0.1666666666666667 0.1666666666666667 0.1666666666666667 0.1666666666666667 0.1666666666666667 0.1666666666666667 0.1666666666666667 0.1666666666666667 0.1666666666666667 0.1666666666666667 0.1666666666666667</probabilities>
		</cpt>
		<deterministic id="D2">
			<state id="OL" />
			<state id="OR" />
			<state id="L" />
			<parents>O2</parents>
			<resultingstates>L L L L L L</resultingstates>
		</deterministic>
		<cpt id="O1">
			<state id="GLCL" />
			<state id="GLCR" />
			<state id="GLS" />
			<state id="GRCL" />
			<state id="GRCR" />
			<state id="GRS" />
			<parents>D2</parents>
			<probabilities>0.1666666666666667 0.1666666666666667 0.1666666666666667 0.1666666666666667 0.1666666666666667 0.1666666666666667 0.1666666666666667 0.1666666666666667 0.1666666666666667 0.1666666666666667 0.1666666666666667 0.1666666666666667 0.1666666666666667 0.1666666666666667 0.1666666666666667 0.1666666666666667 0.1666666666666667 0.1666666666666667</probabilities>
		</cpt>
		<deterministic id="D1">
			<state id="OL" />
			<state id="OR" />
			<state id="L" />
			<parents>O1</parents>
			<resultingstates>L L L L L L</resultingstates>
		</deterministic>
	</nodes>
	<extensions>
		<genie version="1.0" app="SMILE_ACADEMIC 1.6.3" name="Network1">
			<node id="D3">
				<name>D3</name>
				<interior color="ff99cc" />
				<outline color="000000" />
				<font color="000000" name="MS Sans Serif" size="8" />
				<position>538 495 588 531</position>
				<barchart width="128" height="80">
				</barchart>
			</node>
			<node id="O2">
				<name>O2</name>
				<interior color="ccffff" />
				<outline color="000000" />
				<font color="000000" name="MS Sans Serif" size="8" />
				<position>647 583 702 619</position>
			</node>
			<node id="D2">
				<name>D2</name>
				<interior color="ff99cc" />
				<outline color="000000" />
				<font color="000000" name="MS Sans Serif" size="8" />
				<position>744 495 794 531</position>
				<barchart width="128" height="80">
				</barchart>
			</node>
			<node id="O1">
				<name>O1</name>
				<interior color="ccffff" />
				<outline color="000000" />
				<font color="000000" name="MS Sans Serif" size="8" />
				<position>853 583 908 619</position>
			</node>
			<node id="D1">
				<name>D1</name>
				<interior color="ff99cc" />
				<outline color="000000" />
				<font color="000000" name="MS Sans Serif" size="8" />
				<position>948 495 998 531</position>
				<barchart width="128" height="80">
				</barchart>
			</node>
		</genie>
	</extensions>
</smile>
